net
{
    node_size = (140 35);
    HR_Grid_X = "10";
    HR_Grid_Y = "10";
    HR_Grid_GridSnap = "1";
    HR_Grid_GridShow = "0";
    HR_Font_Name = "Arial";
    HR_Font_Size = "-12";
    HR_Font_Weight = "400";
    HR_Font_Italic = "0";
    HR_Propagate_Auto = "0";
    HR_Propagate_AutoSum = "1";
    HR_Propagate_AutoNormal = "1";
    HR_Compile_TriangMethod = "0";
    HR_Compile_Compress = "0";
    HR_Compile_Approximate = "0";
    HR_Compile_ApproxEpsilon = "0.00001";
    HR_Monitor_AutoUpdGraph = "0";
    HR_Monitor_GraphPrecision = "100";
    HR_Monitor_OpenGraph = "0";
    HR_Monitor_InitStates = "5";
    HR_Monitor_InitSD = "2";
    HR_Color_DiscreteChance = "16";
    HR_Color_ContinuosChance = "48";
    HR_Color_Utility = "36";
    HR_Color_Decision = "17";
    HR_Groups_UserGroupsNo = "0";
    HR_Groups_GroupNames = "";
    HR_Groups_GroupColors = "";
}

node MinVol
{
    label = "MinVol";
    position = (1170 258);
    states = ("Zero" "Low" "Normal" "High");
}

node Press
{
    label = "Press";
    position = (1314 258);
    states = ("Zero" "Low" "Normal" "High");
}

node PAP
{
    label = "PAP";
    position = (594 78);
    states = ("Low" "Normal" "High");
}

node ExpCO2
{
    label = "ExpCO2";
    position = (1020 258);
    states = ("Zero" "Low" "Normal" "High");
}

node HRBP
{
    label = "HRBP";
    position = (294 420);
    states = ("Low" "Normal" "High");
}

node ErrLowOutput
{
    label = "ErrLowOutput";
    position = (294 342);
    states = ("True" "False");
}

node HRSat
{
    label = "HRSat";
    position = (594 420);
    states = ("Low" "Normal" "High");
}

node HREKG
{
    label = "HREKG";
    position = (444 420);
    states = ("Low" "Normal" "High");
}

node ErrCauter
{
    label = "ErrCauter";
    position = (594 342);
    states = ("True" "False");
}

node BP
{
    label = "BP";
    position = (150 420);
    states = ("Low" "Normal" "High");
}

node History
{
    label = "History";
    position = (306 0);
    states = ("True" "False");
}

node CO
{
    label = "CO";
    position = (288 186);
    states = ("Low" "Normal" "High");
}

node HR
{
    label = "HR";
    position = (444 264);
    states = ("Low" "Normal" "High");
}

node Catechol
{
    label = "Catechol";
    position = (444 156);
    states = ("Normal" "High");
}

node ArtCO2
{
    label = "ArtCO2";
    position = (882 258);
    states = ("Low" "Normal" "High");
}

node TPR
{
    label = "TPR";
    position = (150 342);
    states = ("Low" "Normal" "High");
}

node Anaphylaxis
{
    label = "Anaphylaxis";
    position = (0 342);
    states = ("True" "False");
}

node SaO2
{
    label = "SaO2";
    position = (630 156);
    states = ("Low" "Normal" "High");
}

node PVSat
{
    label = "PVSat";
    position = (732 264);
    states = ("Low" "Normal" "High");
}

node FiO2
{
    label = "FiO2";
    position = (582 264);
    states = ("Low" "Normal");
}

node VentAlv
{
    label = "VentAlv";
    position = (816 138);
    states = ("Zero" "Low" "Normal" "High");
}

node VentLung
{
    label = "VentLung";
    position = (978 138);
    states = ("Zero" "Low" "Normal" "High");
}

node VentTube
{
    label = "VentTube";
    position = (1140 138);
    states = ("Zero" "Low" "Normal" "High");
}

node Disconnect
{
    label = "Disconnect";
    position = (1140 36);
    states = ("True" "False");
}

node VentMach
{
    label = "VentMach";
    position = (1308 138);
    states = ("Zero" "Low" "Normal" "High");
}

node MinVolSet
{
    label = "MinVolSet";
    position = (1308 42);
    states = ("Low" "Normal" "High");
}

node KinkedTube
{
    label = "KinkedTube";
    position = (978 36);
    states = ("True" "False");
}

node Shunt
{
    label = "Shunt";
    position = (738 72);
    states = ("Normal" "High");
}

node Intubation
{
    label = "Intubation";
    position = (816 6);
    states = ("Normal" "Esophageal" "OneSided");
}

node PulmEmbolus
{
    label = "PulmEmbolus";
    position = (594 0);
    states = ("True" "False");
}

node InsuffAnesth
{
    label = "InsuffAnesth";
    position = (444 0);
    states = ("True" "False");
}

node PCWP
{
    label = "PCWP";
    position = (150 186);
    states = ("Low" "Normal" "High");
}

node CVP
{
    label = "CVP";
    position = (2 186);
    states = ("Low" "Normal" "High");
}

node StrokeVolume
{
    label = "StrokeVolume";
    position = (288 90);
    states = ("Low" "Normal" "High");
}

node LVEDVolume
{
    label = "LVEDVolume";
    position = (66 96);
    states = ("Low" "Normal" "High");
}

node LVFailure
{
    label = "LVFailure";
    position = (156 0);
    states = ("True" "False");
}

node Hypovolemia
{
    label = "Hypovolemia";
    position = (6 0);
    states = ("True" "False");
}

potential (MinVol | VentLung Intubation)
{
 data = ((( 0.97 0.01 0.01 0.01 )	%  Zero  Normal
	  ( 0.97 0.01 0.01 0.01 )	%  Zero  Esophageal
	  ( 0.97 0.01 0.01 0.01 ))	%  Zero  OneSided
	 (( 0.01 0.97 0.01 0.01 )	%  Low  Normal
	  ( 0.6 0.38 0.01 0.01 )	%  Low  Esophageal
	  ( 0.01 0.97 0.01 0.01 ))	%  Low  OneSided
	 (( 0.01 0.01 0.97 0.01 )	%  Normal  Normal
	  ( 0.5 0.48 0.01 0.01 )	%  Normal  Esophageal
	  ( 0.01 0.01 0.97 0.01 ))	%  Normal  OneSided
	 (( 0.01 0.01 0.01 0.97 )	%  High  Normal
	  ( 0.5 0.48 0.01 0.01 )	%  High  Esophageal
	  ( 0.01 0.01 0.01 0.97 )));	%  High  OneSided
}

potential (Press | KinkedTube Intubation VentTube)
{
 data = (((( 0.97 0.01 0.01 0.01 )	%  True  Normal  Zero
	   ( 0.01 0.49 0.3 0.2 )	%  True  Normal  Low
	   ( 0.01 0.01 0.08 0.9 )	%  True  Normal  Normal
	   ( 0.01 0.01 0.01 0.97 ))	%  True  Normal  High
	  (( 0.97 0.01 0.01 0.01 )	%  True  Esophageal  Zero
	   ( 0.1 0.84 0.05 0.01 )	%  True  Esophageal  Low
	   ( 0.05 0.25 0.25 0.45 )	%  True  Esophageal  Normal
	   ( 0.01 0.15 0.25 0.59 ))	%  True  Esophageal  High
	  (( 0.97 0.01 0.01 0.01 )	%  True  OneSided  Zero
	   ( 0.01 0.29 0.3 0.4 )	%  True  OneSided  Low
	   ( 0.01 0.01 0.08 0.9 )	%  True  OneSided  Normal
	   ( 0.01 0.01 0.01 0.97 )))	%  True  OneSided  High
	 ((( 0.97 0.01 0.01 0.01 )	%  False  Normal  Zero
	   ( 0.01 0.97 0.01 0.01 )	%  False  Normal  Low
	   ( 0.01 0.01 0.97 0.01 )	%  False  Normal  Normal
	   ( 0.01 0.01 0.01 0.97 ))	%  False  Normal  High
	  (( 0.97 0.01 0.01 0.01 )	%  False  Esophageal  Zero
	   ( 0.4 0.58 0.01 0.01 )	%  False  Esophageal  Low
	   ( 0.2 0.75 0.04 0.01 )	%  False  Esophageal  Normal
	   ( 0.2 0.7 0.09 0.01 ))	%  False  Esophageal  High
	  (( 0.97 0.01 0.01 0.01 )	%  False  OneSided  Zero
	   ( 0.01 0.9 0.08 0.01 )	%  False  OneSided  Low
	   ( 0.01 0.01 0.38 0.6 )	%  False  OneSided  Normal
	   ( 0.01 0.01 0.01 0.97 ))));	%  False  OneSided  High
}

potential (PAP | PulmEmbolus)
{
 data = (( 0.01 0.19 0.8 )	%  True
	 ( 0.05 0.9 0.05 ));	%  False
}

potential (ExpCO2 | ArtCO2 VentLung)
{
 data = ((( 0.97 0.01 0.01 0.01 )	%  Low  Zero
	  ( 0.01 0.97 0.01 0.01 )	%  Low  Low
	  ( 0.01 0.97 0.01 0.01 )	%  Low  Normal
	  ( 0.01 0.97 0.01 0.01 ))	%  Low  High
	 (( 0.97 0.01 0.01 0.01 )	%  Normal  Zero
	  ( 0.01 0.01 0.97 0.01 )	%  Normal  Low
	  ( 0.01 0.01 0.97 0.01 )	%  Normal  Normal
	  ( 0.01 0.01 0.97 0.01 ))	%  Normal  High
	 (( 0.97 0.01 0.01 0.01 )	%  High  Zero
	  ( 0.01 0.01 0.01 0.97 )	%  High  Low
	  ( 0.01 0.01 0.01 0.97 )	%  High  Normal
	  ( 0.01 0.01 0.01 0.97 )));	%  High  High
}

potential (HRBP | ErrLowOutput HR)
{
 data = ((( 0.98 0.01 0.01 )	%  True  Low
	  ( 0.4 0.59 0.01 )	%  True  Normal
	  ( 0.3 0.4 0.3 ))	%  True  High
	 (( 0.98 0.01 0.01 )	%  False  Low
	  ( 0.01 0.98 0.01 )	%  False  Normal
	  ( 0.01 0.01 0.98 )));	%  False  High
}

potential (ErrLowOutput)
{
 data = ( 0.05 0.95 );
}

potential (HRSat | HR ErrCauter)
{
 data = ((( 0.333333 0.333333 0.333333 )	%  Low  True
	  ( 0.98 0.01 0.01 ))	%  Low  False
	 (( 0.333333 0.333333 0.333333 )	%  Normal  True
	  ( 0.01 0.98 0.01 ))	%  Normal  False
	 (( 0.333333 0.333333 0.333333 )	%  High  True
	  ( 0.01 0.01 0.98 )));	%  High  False
}

potential (HREKG | HR ErrCauter)
{
 data = ((( 0.333333 0.333333 0.333333 )	%  Low  True
	  ( 0.98 0.01 0.01 ))	%  Low  False
	 (( 0.333333 0.333333 0.333333 )	%  Normal  True
	  ( 0.01 0.98 0.01 ))	%  Normal  False
	 (( 0.333333 0.333333 0.333333 )	%  High  True
	  ( 0.01 0.01 0.98 )));	%  High  False
}

potential (ErrCauter)
{
 data = ( 0.1 0.9 );
}

potential (BP | CO TPR)
{
 data = ((( 0.98 0.01 0.01 )	%  Low  Low
	  ( 0.98 0.01 0.01 )	%  Low  Normal
	  ( 0.3 0.6 0.1 ))	%  Low  High
	 (( 0.98 0.01 0.01 )	%  Normal  Low
	  ( 0.1 0.85 0.05 )	%  Normal  Normal
	  ( 0.05 0.4 0.55 ))	%  Normal  High
	 (( 0.9 0.09 0.01 )	%  High  Low
	  ( 0.05 0.2 0.75 )	%  High  Normal
	  ( 0.01 0.09 0.9 )));	%  High  High
}

potential (History | LVFailure)
{
 data = (( 0.9 0.1 )	%  True
	 ( 0.01 0.99 ));	%  False
}

potential (CO | HR StrokeVolume)
{
 data = ((( 0.98 0.01 0.01 )	%  Low  Low
	  ( 0.95 0.04 0.01 )	%  Low  Normal
	  ( 0.3 0.69 0.01 ))	%  Low  High
	 (( 0.95 0.04 0.01 )	%  Normal  Low
	  ( 0.04 0.95 0.01 )	%  Normal  Normal
	  ( 0.01 0.3 0.69 ))	%  Normal  High
	 (( 0.8 0.19 0.01 )	%  High  Low
	  ( 0.01 0.04 0.95 )	%  High  Normal
	  ( 0.01 0.01 0.98 )));	%  High  High
}

potential (HR | Catechol)
{
 data = (( 0.1 0.89 0.01 )	%  Normal
	 ( 0.01 0.09 0.9 ));	%  High
}

potential (Catechol | InsuffAnesth SaO2 TPR ArtCO2)
{
 data = ((((( 0.01 0.99 )	%  True  Low  Low  Low
	    ( 0.01 0.99 )	%  True  Low  Low  Normal
	    ( 0.01 0.99 ))	%  True  Low  Low  High
	   (( 0.01 0.99 )	%  True  Low  Normal  Low
	    ( 0.01 0.99 )	%  True  Low  Normal  Normal
	    ( 0.01 0.99 ))	%  True  Low  Normal  High
	   (( 0.01 0.99 )	%  True  Low  High  Low
	    ( 0.01 0.99 )	%  True  Low  High  Normal
	    ( 0.01 0.99 )))	%  True  Low  High  High
	  ((( 0.01 0.99 )	%  True  Normal  Low  Low
	    ( 0.01 0.99 )	%  True  Normal  Low  Normal
	    ( 0.01 0.99 ))	%  True  Normal  Low  High
	   (( 0.01 0.99 )	%  True  Normal  Normal  Low
	    ( 0.01 0.99 )	%  True  Normal  Normal  Normal
	    ( 0.01 0.99 ))	%  True  Normal  Normal  High
	   (( 0.05 0.95 )	%  True  Normal  High  Low
	    ( 0.05 0.95 )	%  True  Normal  High  Normal
	    ( 0.01 0.99 )))	%  True  Normal  High  High
	  ((( 0.01 0.99 )	%  True  High  Low  Low
	    ( 0.01 0.99 )	%  True  High  Low  Normal
	    ( 0.01 0.99 ))	%  True  High  Low  High
	   (( 0.05 0.95 )	%  True  High  Normal  Low
	    ( 0.05 0.95 )	%  True  High  Normal  Normal
	    ( 0.01 0.99 ))	%  True  High  Normal  High
	   (( 0.05 0.95 )	%  True  High  High  Low
	    ( 0.05 0.95 )	%  True  High  High  Normal
	    ( 0.01 0.99 ))))	%  True  High  High  High
	 (((( 0.05 0.95 )	%  False  Low  Low  Low
	    ( 0.05 0.95 )	%  False  Low  Low  Normal
	    ( 0.01 0.99 ))	%  False  Low  Low  High
	   (( 0.05 0.95 )	%  False  Low  Normal  Low
	    ( 0.05 0.95 )	%  False  Low  Normal  Normal
	    ( 0.01 0.99 ))	%  False  Low  Normal  High
	   (( 0.05 0.95 )	%  False  Low  High  Low
	    ( 0.05 0.95 )	%  False  Low  High  Normal
	    ( 0.01 0.99 )))	%  False  Low  High  High
	  ((( 0.1 0.9 )	%  False  Normal  Low  Low
	    ( 0.1 0.9 )	%  False  Normal  Low  Normal
	    ( 0.1 0.9 ))	%  False  Normal  Low  High
	   (( 0.95 0.05 )	%  False  Normal  Normal  Low
	    ( 0.95 0.05 )	%  False  Normal  Normal  Normal
	    ( 0.3 0.7 ))	%  False  Normal  Normal  High
	   (( 0.95 0.05 )	%  False  Normal  High  Low
	    ( 0.95 0.05 )	%  False  Normal  High  Normal
	    ( 0.3 0.7 )))	%  False  Normal  High  High
	  ((( 0.95 0.05 )	%  False  High  Low  Low
	    ( 0.95 0.05 )	%  False  High  Low  Normal
	    ( 0.3 0.7 ))	%  False  High  Low  High
	   (( 0.99 0.01 )	%  False  High  Normal  Low
	    ( 0.99 0.01 )	%  False  High  Normal  Normal
	    ( 0.99 0.01 ))	%  False  High  Normal  High
	   (( 0.95 0.05 )	%  False  High  High  Low
	    ( 0.99 0.01 )	%  False  High  High  Normal
	    ( 0.3 0.7 )))));	%  False  High  High  High
}

potential (ArtCO2 | VentAlv)
{
 data = (( 0.01 0.01 0.98 )	%  Zero
	 ( 0.01 0.01 0.98 )	%  Low
	 ( 0.04 0.92 0.04 )	%  Normal
	 ( 0.9 0.09 0.01 ));	%  High
}

potential (TPR | Anaphylaxis)
{
 data = (( 0.98 0.01 0.01 )	%  True
	 ( 0.3 0.4 0.3 ));	%  False
}

potential (Anaphylaxis)
{
 data = ( 0.01 0.99 );
}

potential (SaO2 | Shunt PVSat)
{
 data = ((( 0.98 0.01 0.01 )	%  Normal  Low
	  ( 0.01 0.98 0.01 )	%  Normal  Normal
	  ( 0.01 0.01 0.98 ))	%  Normal  High
	 (( 0.98 0.01 0.01 )	%  High  Low
	  ( 0.98 0.01 0.01 )	%  High  Normal
	  ( 0.69 0.3 0.01 )));	%  High  High
}

potential (PVSat | VentAlv FiO2)
{
 data = ((( 0.98 0.01 0.01 )	%  Zero  Low
	  ( 0.98 0.01 0.01 ))	%  Zero  Normal
	 (( 0.98 0.01 0.01 )	%  Low  Low
	  ( 0.98 0.01 0.01 ))	%  Low  Normal
	 (( 0.95 0.04 0.01 )	%  Normal  Low
	  ( 0.01 0.95 0.04 ))	%  Normal  Normal
	 (( 0.95 0.04 0.01 )	%  High  Low
	  ( 0.01 0.01 0.98 )));	%  High  Normal
}

potential (FiO2)
{
 data = ( 0.01 0.99 );
}

potential (VentAlv | Intubation VentLung)
{
 data = ((( 0.97 0.01 0.01 0.01 )	%  Normal  Zero
	  ( 0.01 0.97 0.01 0.01 )	%  Normal  Low
	  ( 0.01 0.01 0.97 0.01 )	%  Normal  Normal
	  ( 0.01 0.01 0.01 0.97 ))	%  Normal  High
	 (( 0.97 0.01 0.01 0.01 )	%  Esophageal  Zero
	  ( 0.01 0.97 0.01 0.01 )	%  Esophageal  Low
	  ( 0.01 0.01 0.97 0.01 )	%  Esophageal  Normal
	  ( 0.01 0.01 0.01 0.97 ))	%  Esophageal  High
	 (( 0.97 0.01 0.01 0.01 )	%  OneSided  Zero
	  ( 0.03 0.95 0.01 0.01 )	%  OneSided  Low
	  ( 0.01 0.94 0.04 0.01 )	%  OneSided  Normal
	  ( 0.01 0.88 0.1 0.01 )));	%  OneSided  High
}

potential (VentLung | KinkedTube VentTube Intubation)
{
 data = (((( 0.97 0.01 0.01 0.01 )	%  True  Zero  Normal
	   ( 0.97 0.01 0.01 0.01 )	%  True  Zero  Esophageal
	   ( 0.97 0.01 0.01 0.01 ))	%  True  Zero  OneSided
	  (( 0.95 0.03 0.01 0.01 )	%  True  Low  Normal
	   ( 0.97 0.01 0.01 0.01 )	%  True  Low  Esophageal
	   ( 0.95 0.03 0.01 0.01 ))	%  True  Low  OneSided
	  (( 0.4 0.58 0.01 0.01 )	%  True  Normal  Normal
	   ( 0.97 0.01 0.01 0.01 )	%  True  Normal  Esophageal
	   ( 0.5 0.48 0.01 0.01 ))	%  True  Normal  OneSided
	  (( 0.3 0.68 0.01 0.01 )	%  True  High  Normal
	   ( 0.97 0.01 0.01 0.01 )	%  True  High  Esophageal
	   ( 0.3 0.68 0.01 0.01 )))	%  True  High  OneSided
	 ((( 0.97 0.01 0.01 0.01 )	%  False  Zero  Normal
	   ( 0.97 0.01 0.01 0.01 )	%  False  Zero  Esophageal
	   ( 0.97 0.01 0.01 0.01 ))	%  False  Zero  OneSided
	  (( 0.01 0.97 0.01 0.01 )	%  False  Low  Normal
	   ( 0.97 0.01 0.01 0.01 )	%  False  Low  Esophageal
	   ( 0.01 0.97 0.01 0.01 ))	%  False  Low  OneSided
	  (( 0.01 0.01 0.97 0.01 )	%  False  Normal  Normal
	   ( 0.97 0.01 0.01 0.01 )	%  False  Normal  Esophageal
	   ( 0.01 0.01 0.97 0.01 ))	%  False  Normal  OneSided
	  (( 0.01 0.01 0.01 0.97 )	%  False  High  Normal
	   ( 0.97 0.01 0.01 0.01 )	%  False  High  Esophageal
	   ( 0.01 0.01 0.01 0.97 ))));	%  False  High  OneSided
}

potential (VentTube | VentMach Disconnect)
{
 data = ((( 0.97 0.01 0.01 0.01 )	%  Zero  True
	  ( 0.97 0.01 0.01 0.01 ))	%  Zero  False
	 (( 0.97 0.01 0.01 0.01 )	%  Low  True
	  ( 0.01 0.97 0.01 0.01 ))	%  Low  False
	 (( 0.97 0.01 0.01 0.01 )	%  Normal  True
	  ( 0.01 0.01 0.97 0.01 ))	%  Normal  False
	 (( 0.97 0.01 0.01 0.01 )	%  High  True
	  ( 0.01 0.01 0.01 0.97 )));	%  High  False
}

potential (Disconnect)
{
 data = ( 0.05 0.95 );
}

potential (VentMach | MinVolSet)
{
 data = (( 0.01 0.97 0.01 0.01 )	%  Low
	 ( 0.01 0.01 0.97 0.01 )	%  Normal
	 ( 0.01 0.01 0.01 0.97 ));	%  High
}

potential (MinVolSet)
{
 data = ( 0.01 0.98 0.01 );
}

potential (KinkedTube)
{
 data = ( 0.04 0.96 );
}

potential (Shunt | PulmEmbolus Intubation)
{
 data = ((( 0.1 0.9 )	%  True  Normal
	  ( 0.1 0.9 )	%  True  Esophageal
	  ( 0.01 0.99 ))	%  True  OneSided
	 (( 0.95 0.05 )	%  False  Normal
	  ( 0.95 0.05 )	%  False  Esophageal
	  ( 0.05 0.95 )));	%  False  OneSided
}

potential (Intubation)
{
 data = ( 0.92 0.03 0.05 );
}

potential (PulmEmbolus)
{
 data = ( 0.01 0.99 );
}

potential (InsuffAnesth)
{
 data = ( 0.2 0.8 );
}

potential (PCWP | LVEDVolume)
{
 data = (( 0.95 0.04 0.01 )	%  Low
	 ( 0.04 0.95 0.01 )	%  Normal
	 ( 0.01 0.04 0.95 ));	%  High
}

potential (CVP | LVEDVolume)
{
 data = (( 0.95 0.04 0.01 )	%  Low
	 ( 0.04 0.95 0.01 )	%  Normal
	 ( 0.01 0.29 0.7 ));	%  High
}

potential (StrokeVolume | LVFailure Hypovolemia)
{
 data = ((( 0.98 0.01 0.01 )	%  True  True
	  ( 0.5 0.49 0.01 ))	%  True  False
	 (( 0.95 0.04 0.01 )	%  False  True
	  ( 0.05 0.9 0.05 )));	%  False  False
}

potential (LVEDVolume | Hypovolemia LVFailure)
{
 data = ((( 0.95 0.04 0.01 )	%  True  True
	  ( 0.98 0.01 0.01 ))	%  True  False
	 (( 0.01 0.09 0.9 )	%  False  True
	  ( 0.05 0.9 0.05 )));	%  False  False
}

potential (LVFailure)
{
 data = ( 0.05 0.95 );
}

potential (Hypovolemia)
{
 data = ( 0.2 0.8 );
}
